<?xml version="1.0"?>
<opencv_storage>
<mycardetectorfix type_id="opencv-haar-classifier">
  <size>
    50 45</size>
  <stages>
    <_>
      <trees>
        <_>
          <_>
            <feature>
              <rects>
                <_>
                  2 23 43 22 -1.</_>
                <_>
                  2 34 43 11 2.</_></rects>
              <tilted>0</tilted></feature>
            <threshold>-0.1189809963107109</threshold>
            <left_val>0.6924561858177185</left_val>
            <right_val>-0.7411602735519409</right_val></_></_>
        <_>
          <_>
            <feature>
              <rects>
                <_>
                  44 44 6 1 -1.</_>
                <_>
                  44 44 3 1 2.</_></rects>
              <tilted>0</tilted></feature>
            <threshold>-2.6779389008879662e-004</threshold>
            <left_val>0.5893933176994324</left_val>
            <right_val>-0.8254858851432800</right_val></_></_>
        <_>
          <_>
            <feature>
              <rects>
                <_>
                  0 42 4 3 -1.</_>
                <_>
                  2 42 2 3 2.</_></rects>
              <tilted>0</tilted></feature>
            <threshold>-2.2321270080283284e-004</threshold>
            <left_val>0.5322077870368958</left_val>
            <right_val>-0.8658425211906433</right_val></_></_>
        <_>
          <_>
            <feature>
              <rects>
                <_>
                  26 3 17 15 -1.</_>
                <_>
                  26 8 17 5 3.</_></rects>
              <tilted>0</tilted></feature>
            <threshold>-8.9383134618401527e-003</threshold>
            <left_val>0.5472140908241272</left_val>
            <right_val>-0.6514369845390320</right_val></_></_></trees>
      <stage_threshold>-1.6690469980239868</stage_threshold>
      <parent>-1</parent>
      <next>-1</next></_>
    <_>
      <trees>
        <_>
          <_>
            <feature>
              <rects>
                <_>
                  12 1 7 18 -1.</_>
                <_>
                  12 7 7 6 3.</_></rects>
              <tilted>0</tilted></feature>
            <threshold>-8.6141452193260193e-003</threshold>
            <left_val>0.7575076222419739</left_val>
            <right_val>-0.6208149194717407</right_val></_></_>
        <_>
          <_>
            <feature>
              <rects>
                <_>
                  36 15 12 30 -1.</_>
                <_>
                  36 30 12 15 2.</_></rects>
              <tilted>0</tilted></feature>
            <threshold>-0.0624069906771183</threshold>
            <left_val>0.6573954820632935</left_val>
            <right_val>-0.6769381165504456</right_val></_></_>
        <_>
          <_>
            <feature>
              <rects>
                <_>
                  0 44 6 1 -1.</_>
                <_>
                  3 44 3 1 2.</_></rects>
              <tilted>0</tilted></feature>
            <threshold>-1.9584270194172859e-004</threshold>
            <left_val>0.4515705108642578</left_val>
            <right_val>-0.8256689906120300</right_val></_></_>
        <_>
          <_>
            <feature>
              <rects>
                <_>
                  23 33 12 12 -1.</_>
                <_>
                  23 39 12 6 2.</_></rects>
              <tilted>0</tilted></feature>
            <threshold>-0.0132518904283643</threshold>
            <left_val>0.4368545114994049</left_val>
            <right_val>-0.5834134221076965</right_val></_></_>
        <_>
          <_>
            <feature>
              <rects>
                <_>
                  18 0 10 4 -1.</_>
                <_>
                  18 2 10 2 2.</_></rects>
              <tilted>0</tilted></feature>
            <threshold>-1.8018479458987713e-003</threshold>
            <left_val>0.7238069176673889</left_val>
            <right_val>-0.3728288114070892</right_val></_></_></trees>
      <stage_threshold>-0.7821567058563232</stage_threshold>
      <parent>0</parent>
      <next>-1</next></_>
    <_>
      <trees>
        <_>
          <_>
            <feature>
              <rects>
                <_>
                  7 8 3 32 -1.</_>
                <_>
                  7 16 3 16 2.</_></rects>
              <tilted>0</tilted></feature>
            <threshold>9.9085858091711998e-003</threshold>
            <left_val>-0.5345969200134277</left_val>
            <right_val>0.5367425084114075</right_val></_></_>
        <_>
          <_>
            <feature>
              <rects>
                <_>
                  46 44 4 1 -1.</_>
                <_>
                  46 44 2 1 2.</_></rects>
              <tilted>0</tilted></feature>
            <threshold>-7.0928406785242260e-005</threshold>
            <left_val>0.3360305130481720</left_val>
            <right_val>-0.8717253208160400</right_val></_></_>
        <_>
          <_>
            <feature>
              <rects>
                <_>
                  0 44 4 1 -1.</_>
                <_>
                  2 44 2 1 2.</_></rects>
              <tilted>0</tilted></feature>
            <threshold>-4.0735751099418849e-005</threshold>
            <left_val>0.2502394914627075</left_val>
            <right_val>-0.9083918929100037</right_val></_></_>
        <_>
          <_>
            <feature>
              <rects>
                <_>
                  29 43 4 2 -1.</_>
                <_>
                  30 43 2 2 2.</_></rects>
              <tilted>0</tilted></feature>
            <threshold>-6.3824023527558893e-005</threshold>
            <left_val>-0.8142383098602295</left_val>
            <right_val>0.1973140984773636</right_val></_></_>
        <_>
          <_>
            <feature>
              <rects>
                <_>
                  17 43 4 2 -1.</_>
                <_>
                  18 43 2 2 2.</_></rects>
              <tilted>0</tilted></feature>
            <threshold>4.9631071306066588e-005</threshold>
            <left_val>0.2850942909717560</left_val>
            <right_val>-0.8577287197113037</right_val></_></_></trees>
      <stage_threshold>-0.7609661817550659</stage_threshold>
      <parent>1</parent>
      <next>-1</next></_>
    <_>
      <trees>
        <_>
          <_>
            <feature>
              <rects>
                <_>
                  0 44 33 1 -1.</_>
                <_>
                  11 44 11 1 3.</_></rects>
              <tilted>0</tilted></feature>
            <threshold>-4.5382639655144885e-006</threshold>
            <left_val>0.3253347873687744</left_val>
            <right_val>-0.8130751848220825</right_val></_></_>
        <_>
          <_>
            <feature>
              <rects>
                <_>
                  28 44 6 1 -1.</_>
                <_>
                  30 44 2 1 3.</_></rects>
              <tilted>0</tilted></feature>
            <threshold>6.7694229073822498e-005</threshold>
            <left_val>0.2553898096084595</left_val>
            <right_val>-0.8477284908294678</right_val></_></_>
        <_>
          <_>
            <feature>
              <rects>
                <_>
                  1 0 20 10 -1.</_>
                <_>
                  1 0 10 5 2.</_>
                <_>
                  11 5 10 5 2.</_></rects>
              <tilted>0</tilted></feature>
            <threshold>-7.5040860101580620e-003</threshold>
            <left_val>0.5694968104362488</left_val>
            <right_val>-0.4442718923091888</right_val></_></_>
        <_>
          <_>
            <feature>
              <rects>
                <_>
                  28 44 6 1 -1.</_>
                <_>
                  30 44 2 1 3.</_></rects>
              <tilted>0</tilted></feature>
            <threshold>-1.5145259385462850e-004</threshold>
            <left_val>-0.8643000125885010</left_val>
            <right_val>0.2069126069545746</right_val></_></_>
        <_>
          <_>
            <feature>
              <rects>
                <_>
                  0 43 12 2 -1.</_>
                <_>
                  4 43 4 2 3.</_></rects>
              <tilted>0</tilted></feature>
            <threshold>-2.9073489713482559e-004</threshold>
            <left_val>0.2789536118507385</left_val>
            <right_val>-0.7911130189895630</right_val></_></_>
        <_>
          <_>
            <feature>
              <rects>
                <_>
                  29 42 4 3 -1.</_>
                <_>
                  30 42 2 3 2.</_></rects>
              <tilted>0</tilted></feature>
            <threshold>7.4725438025780022e-005</threshold>
            <left_val>0.1513437032699585</left_val>
            <right_val>-0.7112454175949097</right_val></_></_>
        <_>
          <_>
            <feature>
              <rects>
                <_>
                  17 42 4 3 -1.</_>
                <_>
                  18 42 2 3 2.</_></rects>
              <tilted>0</tilted></feature>
            <threshold>-9.0197667304892093e-005</threshold>
            <left_val>-0.7434449195861816</left_val>
            <right_val>0.2934756875038147</right_val></_></_>
        <_>
          <_>
            <feature>
              <rects>
                <_>
                  38 5 6 3 -1.</_>
                <_>
                  40 5 2 3 3.</_></rects>
              <tilted>0</tilted></feature>
            <threshold>-1.1141339782625437e-003</threshold>
            <left_val>0.5797498226165772</left_val>
            <right_val>-0.3446902036666870</right_val></_></_></trees>
      <stage_threshold>-1.4528830051422119</stage_threshold>
      <parent>2</parent>
      <next>-1</next></_>
    <_>
      <trees>
        <_>
          <_>
            <feature>
              <rects>
                <_>
                  2 20 16 5 -1.</_>
                <_>
                  6 20 8 5 2.</_></rects>
              <tilted>0</tilted></feature>
            <threshold>1.9623299594968557e-003</threshold>
            <left_val>-0.5107033252716065</left_val>
            <right_val>0.5035470128059387</right_val></_></_>
        <_>
          <_>
            <feature>
              <rects>
                <_>
                  41 13 7 32 -1.</_>
                <_>
                  41 29 7 16 2.</_></rects>
              <tilted>0</tilted></feature>
            <threshold>-0.0171729605644941</threshold>
            <left_val>0.2427778989076614</left_val>
            <right_val>-0.7969291210174561</right_val></_></_>
        <_>
          <_>
            <feature>
              <rects>
                <_>
                  8 0 34 12 -1.</_>
                <_>
                  8 6 34 6 2.</_></rects>
              <tilted>0</tilted></feature>
            <threshold>-0.0358345992863178</threshold>
            <left_val>0.5836673974990845</left_val>
            <right_val>-0.4197674989700317</right_val></_></_>
        <_>
          <_>
            <feature>
              <rects>
                <_>
                  28 30 6 10 -1.</_>
                <_>
                  28 30 3 10 2.</_></rects>
              <tilted>0</tilted></feature>
            <threshold>2.4645531084388494e-003</threshold>
            <left_val>-0.3053584992885590</left_val>
            <right_val>0.5057082176208496</right_val></_></_>
        <_>
          <_>
            <feature>
              <rects>
                <_>
                  1 40 48 1 -1.</_>
                <_>
                  25 40 24 1 2.</_></rects>
              <tilted>0</tilted></feature>
            <threshold>-3.5777750890702009e-003</threshold>
            <left_val>-0.8232902288436890</left_val>
            <right_val>0.2023712992668152</right_val></_></_>
        <_>
          <_>
            <feature>
              <rects>
                <_>
                  48 40 2 2 -1.</_>
                <_>
                  48 40 2 1 2.</_></rects>
              <tilted>1</tilted></feature>
            <threshold>6.9315407017711550e-005</threshold>
            <left_val>-0.7072492241859436</left_val>
            <right_val>0.2451079934835434</right_val></_></_>
        <_>
          <_>
            <feature>
              <rects>
                <_>
                  0 43 8 1 -1.</_>
                <_>
                  2 43 4 1 2.</_></rects>
              <tilted>0</tilted></feature>
            <threshold>-5.4593700042460114e-005</threshold>
            <left_val>0.2608413994312286</left_val>
            <right_val>-0.6988623738288879</right_val></_></_>
        <_>
          <_>
            <feature>
              <rects>
                <_>
                  7 44 42 1 -1.</_>
                <_>
                  7 44 21 1 2.</_></rects>
              <tilted>0</tilted></feature>
            <threshold>2.4008410982787609e-003</threshold>
            <left_val>0.0839454904198647</left_val>
            <right_val>-0.6485410928726196</right_val></_></_>
        <_>
          <_>
            <feature>
              <rects>
                <_>
                  1 44 42 1 -1.</_>
                <_>
                  22 44 21 1 2.</_></rects>
              <tilted>0</tilted></feature>
            <threshold>1.6106719849631190e-003</threshold>
            <left_val>0.3339470922946930</left_val>
            <right_val>-0.7175464034080505</right_val></_></_></trees>
      <stage_threshold>-1.5590289831161499</stage_threshold>
      <parent>3</parent>
      <next>-1</next></_>
    <_>
      <trees>
        <_>
          <_>
            <feature>
              <rects>
                <_>
                  5 17 32 9 -1.</_>
                <_>
                  5 20 32 3 3.</_></rects>
              <tilted>0</tilted></feature>
            <threshold>0.0240255892276764</threshold>
            <left_val>-0.3389185070991516</left_val>
            <right_val>0.6793894171714783</right_val></_></_>
        <_>
          <_>
            <feature>
              <rects>
                <_>
                  48 40 2 2 -1.</_>
                <_>
                  48 40 2 1 2.</_></rects>
              <tilted>1</tilted></feature>
            <threshold>1.4816300245001912e-004</threshold>
            <left_val>-0.4748547077178955</left_val>
            <right_val>0.2236507982015610</right_val></_></_>
        <_>
          <_>
            <feature>
              <rects>
                <_>
                  0 44 20 1 -1.</_>
                <_>
                  5 44 10 1 2.</_></rects>
              <tilted>0</tilted></feature>
            <threshold>-1.0611829929985106e-004</threshold>
            <left_val>0.2686463892459869</left_val>
            <right_val>-0.7686933875083923</right_val></_></_>
        <_>
          <_>
            <feature>
              <rects>
                <_>
                  27 44 4 1 -1.</_>
                <_>
                  28 44 2 1 2.</_></rects>
              <tilted>0</tilted></feature>
            <threshold>-2.4010500055737793e-005</threshold>
            <left_val>-0.8065360188484192</left_val>
            <right_val>0.2051915973424912</right_val></_></_>
        <_>
          <_>
            <feature>
              <rects>
                <_>
                  2 41 2 2 -1.</_>
                <_>
                  2 41 1 2 2.</_></rects>
              <tilted>1</tilted></feature>
            <threshold>3.5876360925612971e-005</threshold>
            <left_val>-0.7613360285758972</left_val>
            <right_val>0.2443936020135880</right_val></_></_>
        <_>
          <_>
            <feature>
              <rects>
                <_>
                  21 41 8 4 -1.</_>
                <_>
                  21 41 4 4 2.</_></rects>
              <tilted>0</tilted></feature>
            <threshold>-8.7390979751944542e-004</threshold>
            <left_val>-0.9038050770759583</left_val>
            <right_val>0.1673443019390106</right_val></_></_>
        <_>
          <_>
            <feature>
              <rects>
                <_>
                  24 44 2 1 -1.</_>
                <_>
                  25 44 1 1 2.</_></rects>
              <tilted>0</tilted></feature>
            <threshold>-2.0975330699002370e-005</threshold>
            <left_val>-0.8445265293121338</left_val>
            <right_val>0.1897791028022766</right_val></_></_></trees>
      <stage_threshold>-1.1115579605102539</stage_threshold>
      <parent>4</parent>
      <next>-1</next></_>
    <_>
      <trees>
        <_>
          <_>
            <feature>
              <rects>
                <_>
                  8 1 6 5 -1.</_>
                <_>
                  11 1 3 5 2.</_></rects>
              <tilted>0</tilted></feature>
            <threshold>2.2894630674272776e-003</threshold>
            <left_val>-0.3526512086391449</left_val>
            <right_val>0.6100112199783325</right_val></_></_>
        <_>
          <_>
            <feature>
              <rects>
                <_>
                  42 16 6 28 -1.</_>
                <_>
                  42 30 6 14 2.</_></rects>
              <tilted>0</tilted></feature>
            <threshold>-0.0197018906474113</threshold>
            <left_val>0.2323998957872391</left_val>
            <right_val>-0.5869591832160950</right_val></_></_>
        <_>
          <_>
            <feature>
              <rects>
                <_>
                  5 1 22 16 -1.</_>
                <_>
                  5 5 22 8 2.</_></rects>
              <tilted>0</tilted></feature>
            <threshold>-0.0123758297413588</threshold>
            <left_val>0.3777846992015839</left_val>
            <right_val>-0.5305181145668030</right_val></_></_>
        <_>
          <_>
            <feature>
              <rects>
                <_>
                  30 24 6 17 -1.</_>
                <_>
                  32 24 2 17 3.</_></rects>
              <tilted>0</tilted></feature>
            <threshold>-1.2208929983898997e-003</threshold>
            <left_val>0.4069054126739502</left_val>
            <right_val>-0.2603082954883575</right_val></_></_>
        <_>
          <_>
            <feature>
              <rects>
                <_>
                  0 38 6 6 -1.</_>
                <_>
                  2 38 2 6 3.</_></rects>
              <tilted>0</tilted></feature>
            <threshold>-1.0393180418759584e-003</threshold>
            <left_val>0.3827008008956909</left_val>
            <right_val>-0.4798411130905151</right_val></_></_>
        <_>
          <_>
            <feature>
              <rects>
                <_>
                  26 35 5 10 -1.</_>
                <_>
                  26 40 5 5 2.</_></rects>
              <tilted>0</tilted></feature>
            <threshold>-4.6576890163123608e-003</threshold>
            <left_val>0.3637999892234802</left_val>
            <right_val>-0.4030382931232452</right_val></_></_>
        <_>
          <_>
            <feature>
              <rects>
                <_>
                  23 43 2 1 -1.</_>
                <_>
                  24 43 1 1 2.</_></rects>
              <tilted>0</tilted></feature>
            <threshold>-1.5646890460629947e-005</threshold>
            <left_val>-0.7998067140579224</left_val>
            <right_val>0.2595053911209106</right_val></_></_>
        <_>
          <_>
            <feature>
              <rects>
                <_>
                  23 0 15 6 -1.</_>
                <_>
                  23 2 15 2 3.</_></rects>
              <tilted>0</tilted></feature>
            <threshold>-7.2981552220880985e-003</threshold>
            <left_val>0.6263653039932251</left_val>
            <right_val>-0.2803668081760407</right_val></_></_>
        <_>
          <_>
            <feature>
              <rects>
                <_>
                  23 43 3 1 -1.</_>
                <_>
                  24 43 1 1 3.</_></rects>
              <tilted>0</tilted></feature>
            <threshold>2.2809919755673036e-005</threshold>
            <left_val>0.3019008040428162</left_val>
            <right_val>-0.7213814854621887</right_val></_></_></trees>
      <stage_threshold>-1.0424740314483643</stage_threshold>
      <parent>5</parent>
      <next>-1</next></_>
    <_>
      <trees>
        <_>
          <_>
            <feature>
              <rects>
                <_>
                  1 19 16 12 -1.</_>
                <_>
                  5 19 8 12 2.</_></rects>
              <tilted>0</tilted></feature>
            <threshold>6.9153108634054661e-003</threshold>
            <left_val>-0.4103266894817352</left_val>
            <right_val>0.4926680028438568</right_val></_></_>
        <_>
          <_>
            <feature>
              <rects>
                <_>
                  11 0 28 2 -1.</_>
                <_>
                  11 1 28 1 2.</_></rects>
              <tilted>0</tilted></feature>
            <threshold>3.0559899751096964e-003</threshold>
            <left_val>-0.2333897948265076</left_val>
            <right_val>0.7428175806999207</right_val></_></_>
        <_>
          <_>
            <feature>
              <rects>
                <_>
                  2 16 6 28 -1.</_>
                <_>
                  2 30 6 14 2.</_></rects>
              <tilted>0</tilted></feature>
            <threshold>-0.0147141497582197</threshold>
            <left_val>0.2465409934520721</left_val>
            <right_val>-0.7943708896636963</right_val></_></_>
        <_>
          <_>
            <feature>
              <rects>
                <_>
                  18 18 15 16 -1.</_>
                <_>
                  23 18 5 16 3.</_></rects>
              <tilted>0</tilted></feature>
            <threshold>1.1977460235357285e-003</threshold>
            <left_val>-0.5452284812927246</left_val>
            <right_val>0.2328633069992065</right_val></_></_>
        <_>
          <_>
            <feature>
              <rects>
                <_>
                  19 43 4 2 -1.</_>
                <_>
                  20 43 2 2 2.</_></rects>
              <tilted>0</tilted></feature>
            <threshold>-3.2749241654528305e-005</threshold>
            <left_val>-0.8371425271034241</left_val>
            <right_val>0.2160975933074951</right_val></_></_>
        <_>
          <_>
            <feature>
              <rects>
                <_>
                  41 5 2 9 -1.</_>
                <_>
                  41 5 1 9 2.</_></rects>
              <tilted>0</tilted></feature>
            <threshold>-6.7632377613335848e-004</threshold>
            <left_val>0.6088159084320068</left_val>
            <right_val>-0.2596325874328613</right_val></_></_>
        <_>
          <_>
            <feature>
              <rects>
                <_>
                  2 44 4 1 -1.</_>
                <_>
                  4 44 2 1 2.</_></rects>
              <tilted>0</tilted></feature>
            <threshold>-3.1009828944661422e-006</threshold>
            <left_val>0.2684645056724548</left_val>
            <right_val>-0.6802762150764465</right_val></_></_>
        <_>
          <_>
            <feature>
              <rects>
                <_>
                  40 6 3 4 -1.</_>
                <_>
                  41 6 1 4 3.</_></rects>
              <tilted>0</tilted></feature>
            <threshold>-2.7767909341491759e-004</threshold>
            <left_val>0.3562994897365570</left_val>
            <right_val>-0.2869420051574707</right_val></_></_>
        <_>
          <_>
            <feature>
              <rects>
                <_>
                  14 0 22 18 -1.</_>
                <_>
                  14 6 22 6 3.</_></rects>
              <tilted>0</tilted></feature>
            <threshold>-0.0604243203997612</threshold>
            <left_val>0.5284786224365234</left_val>
            <right_val>-0.3110328018665314</right_val></_></_>
        <_>
          <_>
            <feature>
              <rects>
                <_>
                  40 6 3 4 -1.</_>
                <_>
                  41 6 1 4 3.</_></rects>
              <tilted>0</tilted></feature>
            <threshold>2.7688060072250664e-004</threshold>
            <left_val>-0.1795181930065155</left_val>
            <right_val>0.4547871947288513</right_val></_></_></trees>
      <stage_threshold>-1.2037739753723145</stage_threshold>
      <parent>6</parent>
      <next>-1</next></_>
    <_>
      <trees>
        <_>
          <_>
            <feature>
              <rects>
                <_>
                  19 43 4 2 -1.</_>
                <_>
                  20 43 2 2 2.</_></rects>
              <tilted>0</tilted></feature>
            <threshold>3.1862091418588534e-005</threshold>
            <left_val>0.2747873067855835</left_val>
            <right_val>-0.7293444871902466</right_val></_></_>
        <_>
          <_>
            <feature>
              <rects>
                <_>
                  13 17 26 9 -1.</_>
                <_>
                  13 20 26 3 3.</_></rects>
              <tilted>0</tilted></feature>
            <threshold>0.0245405696332455</threshold>
            <left_val>-0.3093509972095490</left_val>
            <right_val>0.5948836803436279</right_val></_></_>
        <_>
          <_>
            <feature>
              <rects>
                <_>
                  16 30 12 10 -1.</_>
                <_>
                  19 30 6 10 2.</_></rects>
              <tilted>0</tilted></feature>
            <threshold>2.1368979942053556e-003</threshold>
            <left_val>-0.3319619894027710</left_val>
            <right_val>0.5014933943748474</right_val></_></_>
        <_>
          <_>
            <feature>
              <rects>
                <_>
                  29 44 8 1 -1.</_>
                <_>
                  31 44 4 1 2.</_></rects>
              <tilted>0</tilted></feature>
            <threshold>-6.9162277213763446e-005</threshold>
            <left_val>-0.5513942837715149</left_val>
            <right_val>0.1992819011211395</right_val></_></_>
        <_>
          <_>
            <feature>
              <rects>
                <_>
                  16 22 18 12 -1.</_>
                <_>
                  16 26 18 4 3.</_></rects>
              <tilted>0</tilted></feature>
            <threshold>0.0294258706271648</threshold>
            <left_val>-0.2398300021886826</left_val>
            <right_val>0.7106937170028687</right_val></_></_>
        <_>
          <_>
            <feature>
              <rects>
                <_>
                  39 2 4 3 -1.</_>
                <_>
                  38 3 4 1 3.</_></rects>
              <tilted>1</tilted></feature>
            <threshold>1.7913470510393381e-003</threshold>
            <left_val>-0.1466570049524307</left_val>
            <right_val>0.6103962063789368</right_val></_></_>
        <_>
          <_>
            <feature>
              <rects>
                <_>
                  11 2 3 4 -1.</_>
                <_>
                  12 3 1 4 3.</_></rects>
              <tilted>1</tilted></feature>
            <threshold>-1.7694859998300672e-003</threshold>
            <left_val>0.8383597731590271</left_val>
            <right_val>-0.2078422009944916</right_val></_></_>
        <_>
          <_>
            <feature>
              <rects>
                <_>
                  44 12 6 6 -1.</_>
                <_>
                  47 12 3 3 2.</_>
                <_>
                  44 15 3 3 2.</_></rects>
              <tilted>0</tilted></feature>
            <threshold>2.2821701131761074e-003</threshold>
            <left_val>-0.1074154973030090</left_val>
            <right_val>0.7005705237388611</right_val></_></_>
        <_>
          <_>
            <feature>
              <rects>
                <_>
                  13 44 8 1 -1.</_>
                <_>
                  15 44 4 1 2.</_></rects>
              <tilted>0</tilted></feature>
            <threshold>3.7959220207994804e-005</threshold>
            <left_val>0.2714458107948303</left_val>
            <right_val>-0.7092884182929993</right_val></_></_>
        <_>
          <_>
            <feature>
              <rects>
                <_>
                  42 7 2 4 -1.</_>
                <_>
                  43 7 1 2 2.</_>
                <_>
                  42 9 1 2 2.</_></rects>
              <tilted>0</tilted></feature>
            <threshold>3.5489370930008590e-004</threshold>
            <left_val>-0.1676827967166901</left_val>
            <right_val>0.5251314043998718</right_val></_></_>
        <_>
          <_>
            <feature>
              <rects>
                <_>
                  9 1 6 1 -1.</_>
                <_>
                  12 1 3 1 2.</_></rects>
              <tilted>0</tilted></feature>
            <threshold>4.3679578811861575e-004</threshold>
            <left_val>-0.3112295866012573</left_val>
            <right_val>0.5156506896018982</right_val></_></_>
        <_>
          <_>
            <feature>
              <rects>
                <_>
                  48 44 2 1 -1.</_>
                <_>
                  48 44 1 1 2.</_></rects>
              <tilted>0</tilted></feature>
            <threshold>-2.8939471121702809e-006</threshold>
            <left_val>0.3506920933723450</left_val>
            <right_val>-0.6287429928779602</right_val></_></_></trees>
      <stage_threshold>-1.6536910533905029</stage_threshold>
      <parent>7</parent>
      <next>-1</next></_>
    <_>
      <trees>
        <_>
          <_>
            <feature>
              <rects>
                <_>
                  22 44 4 1 -1.</_>
                <_>
                  23 44 2 1 2.</_></rects>
              <tilted>0</tilted></feature>
            <threshold>-2.0039800801896490e-005</threshold>
            <left_val>-0.7995095849037170</left_val>
            <right_val>0.2141436040401459</right_val></_></_>
        <_>
          <_>
            <feature>
              <rects>
                <_>
                  6 17 40 6 -1.</_>
                <_>
                  6 20 40 3 2.</_></rects>
              <tilted>0</tilted></feature>
            <threshold>0.0334597788751125</threshold>
            <left_val>-0.2691375911235809</left_val>
            <right_val>0.6933354139328003</right_val></_></_>
        <_>
          <_>
            <feature>
              <rects>
                <_>
                  18 16 10 16 -1.</_>
                <_>
                  18 20 10 8 2.</_></rects>
              <tilted>0</tilted></feature>
            <threshold>-0.0146230598911643</threshold>
            <left_val>0.7402029037475586</left_val>
            <right_val>-0.2105384021997452</right_val></_></_>
        <_>
          <_>
            <feature>
              <rects>
                <_>
                  21 1 12 5 -1.</_>
                <_>
                  24 1 6 5 2.</_></rects>
              <tilted>0</tilted></feature>
            <threshold>1.0580549715086818e-003</threshold>
            <left_val>0.1846676021814346</left_val>
            <right_val>-0.6382321119308472</right_val></_></_>
        <_>
          <_>
            <feature>
              <rects>
                <_>
                  17 1 12 5 -1.</_>
                <_>
                  20 1 6 5 2.</_></rects>
              <tilted>0</tilted></feature>
            <threshold>6.5955350873991847e-004</threshold>
            <left_val>0.2207697927951813</left_val>
            <right_val>-0.7120038866996765</right_val></_></_>
        <_>
          <_>
            <feature>
              <rects>
                <_>
                  42 11 2 2 -1.</_>
                <_>
                  42 11 1 2 2.</_></rects>
              <tilted>0</tilted></feature>
            <threshold>-1.1960440315306187e-004</threshold>
            <left_val>0.4242244064807892</left_val>
            <right_val>-0.2297952026128769</right_val></_></_>
        <_>
          <_>
            <feature>
              <rects>
                <_>
                  17 31 13 6 -1.</_>
                <_>
                  17 34 13 3 2.</_></rects>
              <tilted>0</tilted></feature>
            <threshold>5.8017391711473465e-003</threshold>
            <left_val>-0.2701191902160645</left_val>
            <right_val>0.7080144286155701</right_val></_></_>
        <_>
          <_>
            <feature>
              <rects>
                <_>
                  47 40 3 2 -1.</_>
                <_>
                  47 40 3 1 2.</_></rects>
              <tilted>1</tilted></feature>
            <threshold>1.6161189705599099e-004</threshold>
            <left_val>-0.5357493162155151</left_val>
            <right_val>0.2639654874801636</right_val></_></_>
        <_>
          <_>
            <feature>
              <rects>
                <_>
                  6 9 3 4 -1.</_>
                <_>
                  7 9 1 4 3.</_></rects>
              <tilted>0</tilted></feature>
            <threshold>-4.7157821245491505e-004</threshold>
            <left_val>0.6733183264732361</left_val>
            <right_val>-0.2659321129322052</right_val></_></_>
        <_>
          <_>
            <feature>
              <rects>
                <_>
                  22 43 6 2 -1.</_>
                <_>
                  22 43 3 2 2.</_></rects>
              <tilted>0</tilted></feature>
            <threshold>8.7140382674988359e-005</threshold>
            <left_val>0.2468387037515640</left_val>
            <right_val>-0.7334722876548767</right_val></_></_>
        <_>
          <_>
            <feature>
              <rects>
                <_>
                  7 10 2 6 -1.</_>
                <_>
                  7 10 1 3 2.</_>
                <_>
                  8 13 1 3 2.</_></rects>
              <tilted>0</tilted></feature>
            <threshold>5.2008597413077950e-004</threshold>
            <left_val>-0.2777639925479889</left_val>
            <right_val>0.6533271074295044</right_val></_></_></trees>
      <stage_threshold>-1.2093240022659302</stage_threshold>
      <parent>8</parent>
      <next>-1</next></_>
    <_>
      <trees>
        <_>
          <_>
            <feature>
              <rects>
                <_>
                  1 1 48 1 -1.</_>
                <_>
                  13 1 24 1 2.</_></rects>
              <tilted>0</tilted></feature>
            <threshold>9.2766042798757553e-003</threshold>
            <left_val>-0.2996264100074768</left_val>
            <right_val>0.6912462115287781</right_val></_></_>
        <_>
          <_>
            <feature>
              <rects>
                <_>
                  42 41 8 3 -1.</_>
                <_>
                  44 41 4 3 2.</_></rects>
              <tilted>0</tilted></feature>
            <threshold>-5.3583242697641253e-004</threshold>
            <left_val>0.4149256944656372</left_val>
            <right_val>-0.7006723284721375</right_val></_></_>
        <_>
          <_>
            <feature>
              <rects>
                <_>
                  11 28 28 12 -1.</_>
                <_>
                  18 28 14 12 2.</_></rects>
              <tilted>0</tilted></feature>
            <threshold>0.0304349996149540</threshold>
            <left_val>-0.2723860144615173</left_val>
            <right_val>0.6117345094680786</right_val></_></_>
        <_>
          <_>
            <feature>
              <rects>
                <_>
                  29 44 6 1 -1.</_>
                <_>
                  31 44 2 1 3.</_></rects>
              <tilted>0</tilted></feature>
            <threshold>-1.7169059719890356e-004</threshold>
            <left_val>-0.9323456287384033</left_val>
            <right_val>0.1294793933629990</right_val></_></_>
        <_>
          <_>
            <feature>
              <rects>
                <_>
                  7 11 29 12 -1.</_>
                <_>
                  7 14 29 6 2.</_></rects>
              <tilted>0</tilted></feature>
            <threshold>-0.0330408103764057</threshold>
            <left_val>0.7383639812469482</left_val>
            <right_val>-0.2322020977735519</right_val></_></_>
        <_>
          <_>
            <feature>
              <rects>
                <_>
                  37 7 12 12 -1.</_>
                <_>
                  43 7 6 6 2.</_>
                <_>
                  37 13 6 6 2.</_></rects>
              <tilted>0</tilted></feature>
            <threshold>5.9630288742482662e-003</threshold>
            <left_val>-0.3399769067764282</left_val>
            <right_val>0.4692195057868958</right_val></_></_>
        <_>
          <_>
            <feature>
              <rects>
                <_>
                  20 11 6 3 -1.</_>
                <_>
                  22 11 2 3 3.</_></rects>
              <tilted>0</tilted></feature>
            <threshold>-3.9409479359164834e-004</threshold>
            <left_val>-0.6948472261428833</left_val>
            <right_val>0.2452017962932587</right_val></_></_>
        <_>
          <_>
            <feature>
              <rects>
                <_>
                  46 43 4 2 -1.</_>
                <_>
                  46 43 2 2 2.</_></rects>
              <tilted>0</tilted></feature>
            <threshold>-1.4889049634803087e-004</threshold>
            <left_val>0.1721701025962830</left_val>
            <right_val>-0.7983126044273377</right_val></_></_>
        <_>
          <_>
            <feature>
              <rects>
                <_>
                  12 12 12 6 -1.</_>
                <_>
                  16 12 4 6 3.</_></rects>
              <tilted>0</tilted></feature>
            <threshold>-1.4864669647067785e-003</threshold>
            <left_val>-0.6663038134574890</left_val>
            <right_val>0.2348379045724869</right_val></_></_></trees>
      <stage_threshold>-1.1191029548645020</stage_threshold>
      <parent>9</parent>
      <next>-1</next></_>
    <_>
      <trees>
        <_>
          <_>
            <feature>
              <rects>
                <_>
                  1 44 48 1 -1.</_>
                <_>
                  13 44 24 1 2.</_></rects>
              <tilted>0</tilted></feature>
            <threshold>-1.6716140089556575e-004</threshold>
            <left_val>0.2798266112804413</left_val>
            <right_val>-0.6761698722839356</right_val></_></_>
        <_>
          <_>
            <feature>
              <rects>
                <_>
                  41 27 5 18 -1.</_>
                <_>
                  41 36 5 9 2.</_></rects>
              <tilted>0</tilted></feature>
            <threshold>-4.6866410411894321e-003</threshold>
            <left_val>0.1937230974435806</left_val>
            <right_val>-0.7307862043380737</right_val></_></_>
        <_>
          <_>
            <feature>
              <rects>
                <_>
                  6 44 27 1 -1.</_>
                <_>
                  15 44 9 1 3.</_></rects>
              <tilted>0</tilted></feature>
            <threshold>-7.5040408410131931e-004</threshold>
            <left_val>-0.7149593830108643</left_val>
            <right_val>0.2618826925754547</right_val></_></_>
        <_>
          <_>
            <feature>
              <rects>
                <_>
                  44 37 6 8 -1.</_>
                <_>
                  46 37 2 8 3.</_></rects>
              <tilted>0</tilted></feature>
            <threshold>-1.3982340460643172e-003</threshold>
            <left_val>0.3016850054264069</left_val>
            <right_val>-0.4617725014686585</right_val></_></_>
        <_>
          <_>
            <feature>
              <rects>
                <_>
                  17 28 14 9 -1.</_>
                <_>
                  17 31 14 3 3.</_></rects>
              <tilted>0</tilted></feature>
            <threshold>-0.0226406902074814</threshold>
            <left_val>0.7842705249786377</left_val>
            <right_val>-0.2332473993301392</right_val></_></_>
        <_>
          <_>
            <feature>
              <rects>
                <_>
                  40 8 3 3 -1.</_>
                <_>
                  41 8 1 3 3.</_></rects>
              <tilted>0</tilted></feature>
            <threshold>-5.1897612866014242e-004</threshold>
            <left_val>0.5643749833106995</left_val>
            <right_val>-0.2375182062387466</right_val></_></_>
        <_>
          <_>
            <feature>
              <rects>
                <_>
                  22 44 3 1 -1.</_>
                <_>
                  23 44 1 1 3.</_></rects>
              <tilted>0</tilted></feature>
            <threshold>2.8551270588650368e-005</threshold>
            <left_val>0.2195626050233841</left_val>
            <right_val>-0.7532314062118530</right_val></_></_>
        <_>
          <_>
            <feature>
              <rects>
                <_>
                  3 1 44 1 -1.</_>
                <_>
                  14 1 22 1 2.</_></rects>
              <tilted>0</tilted></feature>
            <threshold>9.5575936138629913e-003</threshold>
            <left_val>-0.2450110018253326</left_val>
            <right_val>0.7152044177055359</right_val></_></_>
        <_>
          <_>
            <feature>
              <rects>
                <_>
                  0 23 4 22 -1.</_>
                <_>
                  1 23 2 22 2.</_></rects>
              <tilted>0</tilted></feature>
            <threshold>-2.7388280723243952e-003</threshold>
            <left_val>0.6789358854293823</left_val>
            <right_val>-0.2646565139293671</right_val></_></_>
        <_>
          <_>
            <feature>
              <rects>
                <_>
                  18 27 18 9 -1.</_>
                <_>
                  18 30 18 3 3.</_></rects>
              <tilted>0</tilted></feature>
            <threshold>0.0197228193283081</threshold>
            <left_val>-0.2282564043998718</left_val>
            <right_val>0.6689962148666382</right_val></_></_></trees>
      <stage_threshold>-0.9288514852523804</stage_threshold>
      <parent>10</parent>
      <next>-1</next></_>
    <_>
      <trees>
        <_>
          <_>
            <feature>
              <rects>
                <_>
                  22 38 2 5 -1.</_>
                <_>
                  22 38 1 5 2.</_></rects>
              <tilted>1</tilted></feature>
            <threshold>1.5427569451276213e-004</threshold>
            <left_val>-0.5691413283348084</left_val>
            <right_val>0.3186494112014771</right_val></_></_>
        <_>
          <_>
            <feature>
              <rects>
                <_>
                  38 43 12 1 -1.</_>
                <_>
                  41 43 6 1 2.</_></rects>
              <tilted>0</tilted></feature>
            <threshold>-2.5084559456445277e-004</threshold>
            <left_val>0.2020740061998367</left_val>
            <right_val>-0.7736431956291199</right_val></_></_>
        <_>
          <_>
            <feature>
              <rects>
                <_>
                  0 43 12 2 -1.</_>
                <_>
                  3 43 6 2 2.</_></rects>
              <tilted>0</tilted></feature>
            <threshold>-2.9245531186461449e-004</threshold>
            <left_val>0.2243165969848633</left_val>
            <right_val>-0.7869014143943787</right_val></_></_>
        <_>
          <_>
            <feature>
              <rects>
                <_>
                  36 15 13 30 -1.</_>
                <_>
                  36 30 13 15 2.</_></rects>
              <tilted>0</tilted></feature>
            <threshold>-0.0614875294268131</threshold>
            <left_val>0.1812060028314591</left_val>
            <right_val>-0.5672733783721924</right_val></_></_>
        <_>
          <_>
            <feature>
              <rects>
                <_>
                  19 0 2 7 -1.</_>
                <_>
                  19 0 1 7 2.</_></rects>
              <tilted>1</tilted></feature>
            <threshold>5.1113148219883442e-004</threshold>
            <left_val>-0.4859321117401123</left_val>
            <right_val>0.3615475893020630</right_val></_></_>
        <_>
          <_>
            <feature>
              <rects>
                <_>
                  24 44 6 1 -1.</_>
                <_>
                  26 44 2 1 3.</_></rects>
              <tilted>0</tilted></feature>
            <threshold>4.4796750444220379e-005</threshold>
            <left_val>0.1642740964889526</left_val>
            <right_val>-0.7030982971191406</right_val></_></_>
        <_>
          <_>
            <feature>
              <rects>
                <_>
                  15 28 6 13 -1.</_>
                <_>
                  18 28 3 13 2.</_></rects>
              <tilted>0</tilted></feature>
            <threshold>3.1129040289670229e-003</threshold>
            <left_val>-0.3348599970340729</left_val>
            <right_val>0.4826168119907379</right_val></_></_>
        <_>
          <_>
            <feature>
              <rects>
                <_>
                  25 11 8 2 -1.</_>
                <_>
                  27 11 4 2 2.</_></rects>
              <tilted>0</tilted></feature>
            <threshold>8.2862662384286523e-004</threshold>
            <left_val>0.0789887011051178</left_val>
            <right_val>-0.8266990780830383</right_val></_></_>
        <_>
          <_>
            <feature>
              <rects>
                <_>
                  13 10 16 15 -1.</_>
                <_>
                  17 10 8 15 2.</_></rects>
              <tilted>0</tilted></feature>
            <threshold>5.5350027978420258e-003</threshold>
            <left_val>0.1818518936634064</left_val>
            <right_val>-0.7849717736244202</right_val></_></_>
        <_>
          <_>
            <feature>
              <rects>
                <_>
                  40 13 6 1 -1.</_>
                <_>
                  42 13 2 1 3.</_></rects>
              <tilted>0</tilted></feature>
            <threshold>1.7422420205548406e-004</threshold>
            <left_val>-0.2726179957389832</left_val>
            <right_val>0.3631550967693329</right_val></_></_>
        <_>
          <_>
            <feature>
              <rects>
                <_>
                  21 44 4 1 -1.</_>
                <_>
                  22 44 2 1 2.</_></rects>
              <tilted>0</tilted></feature>
            <threshold>-2.5772740627871826e-005</threshold>
            <left_val>-0.7736080288887024</left_val>
            <right_val>0.2105315029621124</right_val></_></_>
        <_>
          <_>
            <feature>
              <rects>
                <_>
                  44 14 6 4 -1.</_>
                <_>
                  47 14 3 2 2.</_>
                <_>
                  44 16 3 2 2.</_></rects>
              <tilted>0</tilted></feature>
            <threshold>-6.9670932134613395e-004</threshold>
            <left_val>0.3888750076293945</left_val>
            <right_val>-0.1442544013261795</right_val></_></_></trees>
      <stage_threshold>-1.0936059951782227</stage_threshold>
      <parent>11</parent>
      <next>-1</next></_>
    <_>
      <trees>
        <_>
          <_>
            <feature>
              <rects>
                <_>
                  2 16 9 16 -1.</_>
                <_>
                  5 16 3 16 3.</_></rects>
              <tilted>0</tilted></feature>
            <threshold>4.6187727712094784e-003</threshold>
            <left_val>-0.3327293097972870</left_val>
            <right_val>0.4600163102149963</right_val></_></_>
        <_>
          <_>
            <feature>
              <rects>
                <_>
                  48 40 2 3 -1.</_>
                <_>
                  48 40 1 3 2.</_></rects>
              <tilted>1</tilted></feature>
            <threshold>-1.0050320270238444e-005</threshold>
            <left_val>0.1942466944456101</left_val>
            <right_val>-0.5543347001075745</right_val></_></_>
        <_>
          <_>
            <feature>
              <rects>
                <_>
                  1 12 14 6 -1.</_>
                <_>
                  1 14 14 2 3.</_></rects>
              <tilted>0</tilted></feature>
            <threshold>1.5191499842330813e-003</threshold>
            <left_val>-0.3818536996841431</left_val>
            <right_val>0.3876267969608307</right_val></_></_>
        <_>
          <_>
            <feature>
              <rects>
                <_>
                  16 44 34 1 -1.</_>
                <_>
                  16 44 17 1 2.</_></rects>
              <tilted>0</tilted></feature>
            <threshold>7.0431112544611096e-004</threshold>
            <left_val>0.1575047969818115</left_val>
            <right_val>-0.6077160239219666</right_val></_></_>
        <_>
          <_>
            <feature>
              <rects>
                <_>
                  9 3 2 4 -1.</_>
                <_>
                  9 3 1 2 2.</_>
                <_>
                  10 5 1 2 2.</_></rects>
              <tilted>0</tilted></feature>
            <threshold>4.6099509927444160e-004</threshold>
            <left_val>-0.2185653001070023</left_val>
            <right_val>0.7472370266914368</right_val></_></_>
        <_>
          <_>
            <feature>
              <rects>
                <_>
                  18 22 15 10 -1.</_>
                <_>
                  23 22 5 10 3.</_></rects>
              <tilted>0</tilted></feature>
            <threshold>1.4964960282668471e-003</threshold>
            <left_val>-0.3481315076351166</left_val>
            <right_val>0.3106612861156464</right_val></_></_>
        <_>
          <_>
            <feature>
              <rects>
                <_>
                  18 44 4 1 -1.</_>
                <_>
                  19 44 2 1 2.</_></rects>
              <tilted>0</tilted></feature>
            <threshold>2.2930680643185042e-005</threshold>
            <left_val>0.2037449926137924</left_val>
            <right_val>-0.7250434756278992</right_val></_></_>
        <_>
          <_>
            <feature>
              <rects>
                <_>
                  9 0 33 3 -1.</_>
                <_>
                  9 1 33 1 3.</_></rects>
              <tilted>0</tilted></feature>
            <threshold>3.9132009260356426e-003</threshold>
            <left_val>-0.2903752028942108</left_val>
            <right_val>0.5859597921371460</right_val></_></_>
        <_>
          <_>
            <feature>
              <rects>
                <_>
                  2 40 2 2 -1.</_>
                <_>
                  2 40 1 2 2.</_></rects>
              <tilted>1</tilted></feature>
            <threshold>1.8540940800448880e-005</threshold>
            <left_val>-0.7571552991867065</left_val>
            <right_val>0.2366409003734589</right_val></_></_>
        <_>
          <_>
            <feature>
              <rects>
                <_>
                  36 23 6 8 -1.</_>
                <_>
                  38 25 2 8 3.</_></rects>
              <tilted>1</tilted></feature>
            <threshold>-8.8706612586975098e-003</threshold>
            <left_val>0.6553226709365845</left_val>
            <right_val>-0.1570135951042175</right_val></_></_>
        <_>
          <_>
            <feature>
              <rects>
                <_>
                  2 40 3 2 -1.</_>
                <_>
                  2 40 3 1 2.</_></rects>
              <tilted>1</tilted></feature>
            <threshold>-3.4064050851156935e-005</threshold>
            <left_val>0.2467474043369293</left_val>
            <right_val>-0.5971146225929260</right_val></_></_>
        <_>
          <_>
            <feature>
              <rects>
                <_>
                  5 7 42 10 -1.</_>
                <_>
                  26 7 21 5 2.</_>
                <_>
                  5 12 21 5 2.</_></rects>
              <tilted>0</tilted></feature>
            <threshold>0.0152557902038097</threshold>
            <left_val>0.1264400035142899</left_val>
            <right_val>-0.6582807898521423</right_val></_></_>
        <_>
          <_>
            <feature>
              <rects>
                <_>
                  16 4 8 4 -1.</_>
                <_>
                  18 6 4 4 2.</_></rects>
              <tilted>1</tilted></feature>
            <threshold>-1.5296119963750243e-003</threshold>
            <left_val>0.3616684079170227</left_val>
            <right_val>-0.4766614139080048</right_val></_></_></trees>
      <stage_threshold>-1.2250750064849854</stage_threshold>
      <parent>12</parent>
      <next>-1</next></_>
    <_>
      <trees>
        <_>
          <_>
            <feature>
              <rects>
                <_>
                  10 38 30 4 -1.</_>
                <_>
                  10 39 30 2 2.</_></rects>
              <tilted>0</tilted></feature>
            <threshold>-5.7351980358362198e-003</threshold>
            <left_val>0.7451906800270081</left_val>
            <right_val>-0.2091826051473618</right_val></_></_>
        <_>
          <_>
            <feature>
              <rects>
                <_>
                  13 28 24 17 -1.</_>
                <_>
                  19 28 12 17 2.</_></rects>
              <tilted>0</tilted></feature>
            <threshold>0.0174897108227015</threshold>
            <left_val>-0.2809553146362305</left_val>
            <right_val>0.5099617242813110</right_val></_></_>
        <_>
          <_>
            <feature>
              <rects>
                <_>
                  1 2 48 2 -1.</_>
                <_>
                  13 2 24 2 2.</_></rects>
              <tilted>0</tilted></feature>
            <threshold>0.0213594194501638</threshold>
            <left_val>-0.2261676937341690</left_val>
            <right_val>0.6825997829437256</right_val></_></_>
        <_>
          <_>
            <feature>
              <rects>
                <_>
                  34 7 16 16 -1.</_>
                <_>
                  42 7 8 8 2.</_>
                <_>
                  34 15 8 8 2.</_></rects>
              <tilted>0</tilted></feature>
            <threshold>0.0139395399019122</threshold>
            <left_val>-0.2080177962779999</left_val>
            <right_val>0.4186413884162903</right_val></_></_>
        <_>
          <_>
            <feature>
              <rects>
                <_>
                  1 9 8 6 -1.</_>
                <_>
                  1 9 4 3 2.</_>
                <_>
                  5 12 4 3 2.</_></rects>
              <tilted>0</tilted></feature>
            <threshold>3.8736669812351465e-003</threshold>
            <left_val>-0.2130586951971054</left_val>
            <right_val>0.7400259971618652</right_val></_></_>
        <_>
          <_>
            <feature>
              <rects>
                <_>
                  42 29 2 16 -1.</_>
                <_>
                  42 37 2 8 2.</_></rects>
              <tilted>0</tilted></feature>
            <threshold>-1.9807879289146513e-004</threshold>
            <left_val>0.1544684022665024</left_val>
            <right_val>-0.6900917887687683</right_val></_></_>
        <_>
          <_>
            <feature>
              <rects>
                <_>
                  0 44 2 1 -1.</_>
                <_>
                  1 44 1 1 2.</_></rects>
              <tilted>0</tilted></feature>
            <threshold>-2.7931350814469624e-006</threshold>
            <left_val>0.2224514037370682</left_val>
            <right_val>-0.6571375131607056</right_val></_></_>
        <_>
          <_>
            <feature>
              <rects>
                <_>
                  23 43 4 1 -1.</_>
                <_>
                  23 43 2 1 2.</_></rects>
              <tilted>0</tilted></feature>
            <threshold>-4.0857579733710736e-005</threshold>
            <left_val>-0.7024322748184204</left_val>
            <right_val>0.2141887992620468</right_val></_></_>
        <_>
          <_>
            <feature>
              <rects>
                <_>
                  15 28 18 6 -1.</_>
                <_>
                  15 30 18 2 3.</_></rects>
              <tilted>0</tilted></feature>
            <threshold>-0.0146895898506045</threshold>
            <left_val>0.7277529835700989</left_val>
            <right_val>-0.2379232048988342</right_val></_></_>
        <_>
          <_>
            <feature>
              <rects>
                <_>
                  27 27 4 9 -1.</_>
                <_>
                  27 30 4 3 3.</_></rects>
              <tilted>0</tilted></feature>
            <threshold>9.3900924548506737e-003</threshold>
            <left_val>-0.1268004029989243</left_val>
            <right_val>0.7708163857460022</right_val></_></_>
        <_>
          <_>
            <feature>
              <rects>
                <_>
                  18 14 6 4 -1.</_>
                <_>
                  20 14 2 4 3.</_></rects>
              <tilted>0</tilted></feature>
            <threshold>8.2905770977959037e-004</threshold>
            <left_val>0.2056929022073746</left_val>
            <right_val>-0.8426259160041809</right_val></_></_>
        <_>
          <_>
            <feature>
              <rects>
                <_>
                  28 1 18 2 -1.</_>
                <_>
                  37 1 9 1 2.</_>
                <_>
                  28 2 9 1 2.</_></rects>
              <tilted>0</tilted></feature>
            <threshold>-1.0866899974644184e-003</threshold>
            <left_val>0.3923611044883728</left_val>
            <right_val>-0.2704487144947052</right_val></_></_>
        <_>
          <_>
            <feature>
              <rects>
                <_>
                  18 0 2 26 -1.</_>
                <_>
                  19 0 1 26 2.</_></rects>
              <tilted>0</tilted></feature>
            <threshold>-7.6222140341997147e-004</threshold>
            <left_val>-0.7722290754318237</left_val>
            <right_val>0.2006997019052506</right_val></_></_></trees>
      <stage_threshold>-1.0288640260696411</stage_threshold>
      <parent>13</parent>
      <next>-1</next></_></stages></mycardetectorfix>
</opencv_storage>
